[[-0.18543441331818808, -0.1861054440415595, -0.17793606252564564, 0.06371563648450065, 0.062359463637577404, 0.07095660546766377, 0.12755574420999047, 0.12688435774522905, 0.13505440571451877, -0.07854671699241467, -0.08056892832256224, -0.07197091507936143], [-0.12467837644592147, -0.13168750754817182, -0.12662007231595906, -0.042434950870051315, -0.04971093142688598, -0.04451424243436243, 0.13132997417299042, 0.12431857527301346, 0.12938756763504117, -0.07940209127596312, -0.0869445161366729, -0.08174722339153391], [-0.15356942080581362, -0.12499984746353703, -0.10953501113783697, 0.10632750947192604, 0.1343840954453744, 0.15027829143832994, -0.2747634370741661, -0.24618685731652595, -0.23072603118139193, -0.023878168271350978, 0.0038161554155912683, 0.019709958959203258], [-0.07387465771892367, -0.04308901560997295, -0.02489255626609704, -0.30742962673720287, -0.2760910624107673, -0.2583188990161991, -0.17482451915896016, -0.14404213274213085, -0.12584412294526445, -0.22301913869168546, -0.19105183542342283, -0.1732800654456848]]