[[0.19259549905717607, 0.0709609107730442, 0.043506126064679164, 0.029173370206329197, -0.09477546971031979, -0.12108309330877533, 0.4025341417762712, 0.2809751822259341, 0.25349517260458926, 0.12448657459101428, -0.0027973783989775867, -0.029080325083356045], [0.06531536821132222, 0.10703022349580675, 0.13518992756491038, 0.04566865626035674, 0.08488878463314092, 0.11497016104155079, -0.1384366960079198, -0.09683541843941293, -0.06863784050573447, -0.2765086629266141, -0.24152173404170552, -0.21147720272189768], [0.012865625953243866, 0.05988919000317944, 0.07164325234687402, -0.0063303030212002636, 0.04153594167715606, 0.052960541461227834, -0.17379161540994265, -0.1268021452984103, -0.11503671328545835, -0.11141112724265949, -0.06251562367627306, -0.05110209605012373], [-0.37087322916343174, -0.27370188627739783, -0.2526618905232432, 0.09811601124459982, 0.19079793202443882, 0.21374457364969887, -0.16269199299210574, -0.065476206730485, -0.044451022146636134, 0.0745887171784105, 0.16216750710617064, 0.1851282931678324]]